{"time_step_duration_us":100.0,"nr_inputs":6,"nr_outputs":3,"model":"LeakyIntegrateAndFire","layers":[{"neurons":[{"weights":[5.455409988691565,2.8615599672641254,1.9572105101990172,1.76659064232941,8.701911530003523,3.3005198021947817],"internal_weights":[0.0,-2.3448633460901793,-1.8234371880071427,-2.555058381485947,-2.704776743924218],"v_th":-55.0,"v_rest":-70.0,"v_reset":-70.0,"tau":10.0},{"weights":[6.775326382776289,9.212347463002498,6.387289248607151,9.950227522210861,2.0497345316725557,3.423350571134269],"internal_weights":[-1.3232062303825685,0.0,-2.863328489193558,-1.0680132288673847,-2.3406286875564444],"v_th":-55.0,"v_rest":-70.0,"v_reset":-70.0,"tau":10.0},{"weights":[4.522616100301496,7.5071968609762445,8.086311676414164,4.944717853472969,5.127498467008873,6.057816090165271],"internal_weights":[-1.426626073185088,-1.0621946582959563,0.0,-1.1048948747770626,-2.19409244349589],"v_th":-55.0,"v_rest":-70.0,"v_reset":-70.0,"tau":10.0},{"weights":[9.144039357285907,5.610715508739736,9.065378523939234,7.797595444695734,6.810529713997948,2.2189053471928664],"internal_weights":[-2.386870149648388,-2.253840346966805,-1.6349178862812621,0.0,-2.0287655633283057],"v_th":-55.0,"v_rest":-70.0,"v_reset":-70.0,"tau":10.0},{"weights":[5.433071831709213,3.7184593379935724,4.781906339070295,5.085408332253976,1.9593339664409697,2.5153000436301407],"internal_weights":[-2.232012515135019,-2.2629785852629074,-2.121231103142528,-2.929449493456515,0.0],"v_th":-55.0,"v_rest":-70.0,"v_reset":-70.0,"tau":10.0}]},{"neurons":[{"weights":[8.066061724130106,6.323529193802032,5.620435646452952,4.499139368964316,9.82799708571908],"internal_weights":[0.0,-1.1714495473347322,-2.0413011215162893,-1.434580775386836,-2.5551345778145826,-1.8976914361649804,-2.870456879505483,-1.389222847714854],"v_th":-55.0,"v_rest":-70.0,"v_reset":-70.0,"tau":10.0},{"weights":[6.948507022425521,5.846994951603741,3.7142663490682115,4.455851656515193,8.886895242340152],"internal_weights":[-1.5907186881053172,0.0,-2.4798717398308616,-2.3962311953363815,-1.350633645173764,-2.5498872294306443,-2.462385448507063,-2.9336975158436123],"v_th":-55.0,"v_rest":-70.0,"v_reset":-70.0,"tau":10.0},{"weights":[1.910079160171858,1.482793711588792,5.284502349713724,8.151491472256739,1.618165080619582],"internal_weights":[-2.7580765218493593,-1.3883030803966339,0.0,-2.2312848972647616,-1.456513629641477,-2.8485660087893887,-1.6597762860337835,-1.5903005000314037],"v_th":-55.0,"v_rest":-70.0,"v_reset":-70.0,"tau":10.0},{"weights":[3.9993830136146937,4.575960914025136,3.0715297267475754,5.755061786647877,2.0356247082057535],"internal_weights":[-1.7194554468188492,-1.07178705445182,-1.945083292065182,0.0,-1.3010788280418182,-1.0206446230788946,-1.6486868112547135,-1.9015616117286418],"v_th":-55.0,"v_rest":-70.0,"v_reset":-70.0,"tau":10.0},{"weights":[4.778231396016719,8.079061259946766,6.3356288628430955,6.605553347778182,1.059190329648073],"internal_weights":[-1.449252726992222,-2.83504890507117,-2.859398291940016,-2.6044613384194633,0.0,-2.956151095030351,-2.3163271003912294,-2.8636233212124207],"v_th":-55.0,"v_rest":-70.0,"v_reset":-70.0,"tau":10.0},{"weights":[3.6876036341772767,2.7637670596268773,6.63869022855258,5.743686668530776,7.883602554293963],"internal_weights":[-1.884590164761735,-1.289537278070862,-1.0471680115773823,-1.1545817662318418,-1.4949256180305195,0.0,-1.989223607669133,-2.947202101526396],"v_th":-55.0,"v_rest":-70.0,"v_reset":-70.0,"tau":10.0},{"weights":[8.783474597042428,3.5125962561622583,1.3978761485364266,8.350996350700248,8.570029969623906],"internal_weights":[-1.6242415747574153,-1.0171447779678666,-1.1740019272828985,-2.0087115154377306,-2.136843140692558,-2.9559971741335893,0.0,-2.2517571168393875],"v_th":-55.0,"v_rest":-70.0,"v_reset":-70.0,"tau":10.0},{"weights":[3.149667728832237,2.0745627405010136,3.7500415314753957,7.276416335541588,4.066215409932758],"internal_weights":[-1.185649660522095,-2.6077464912400754,-2.8985262582686087,-2.8820744041515023,-2.1884244297000786,-2.0919388638770657,-1.0882289475493785,0.0],"v_th":-55.0,"v_rest":-70.0,"v_reset":-70.0,"tau":10.0}]},{"neurons":[{"weights":[8.325887987767379,7.1746405367556525,4.748393809043398,2.815109803108748,9.753938169229132,3.987314353507991,6.356973636983266,1.423458349778723],"internal_weights":[0.0,-2.500785443817301,-1.512065903807766],"v_th":-55.0,"v_rest":-70.0,"v_reset":-70.0,"tau":10.0},{"weights":[5.7128895108062,7.91324442521687,8.627085737932347,3.837333646653201,8.477880514238745,7.413492248620319,1.2174875477819653,6.835704547879979],"internal_weights":[-2.936119570681639,0.0,-1.7111743741213215],"v_th":-55.0,"v_rest":-70.0,"v_reset":-70.0,"tau":10.0},{"weights":[2.149262637439178,2.1035568518668173,8.48584424205874,3.3555442274628464,9.32385203558885,4.514357215194177,1.1328422741418698,7.486289693665762],"internal_weights":[-1.5970796843474055,-2.06363224359606,0.0],"v_th":-55.0,"v_rest":-70.0,"v_reset":-70.0,"tau":10.0}]}]}