{
    "time_step_duration_us": 100.0,
    "nr_inputs": 6,
    "nr_outputs": 3,
    "layers": [
        {
            "neurons": [
                {
                    "weights": [
                        9.86096452319967,
                        7.082473406742703,
                        9.294057997081277,
                        6.661546551169154,
                        9.955827734689915,
                        1.2778568505532764
                    ],
                    "internal_weights": [
                        0.0,
                        -2.1639846158071245,
                        -1.1503242468886707,
                        -1.0569913132177957,
                        -2.0502919786853084
                    ],
                    "v_th": -55.0,
                    "v_rest": -70.0,
                    "v_reset": -70.0,
                    "tau": 10.0
                },
                {
                    "weights": [
                        9.391078914919921,
                        7.218999659378788,
                        7.757489837719274,
                        9.132841263455514,
                        8.046202540133404,
                        1.063780118172446
                    ],
                    "internal_weights": [
                        -4.106764219246455,
                        0.0,
                        -1.843982737293361,
                        -2.013700879409585,
                        -1.8859578086504962
                    ],
                    "v_th": -55.0,
                    "v_rest": -70.0,
                    "v_reset": -70.0,
                    "tau": 10.0
                },
                {
                    "weights": [
                        8.446359043842797,
                        2.3920296164815777,
                        3.8523052017500863,
                        6.5809448197673275,
                        5.542468216454596,
                        3.6533076046560677
                    ],
                    "internal_weights": [
                        -3.697356862075308,
                        -5.053787310857983,
                        0.0,
                        -1.635574932366544,
                        -5.508348755018497
                    ],
                    "v_th": -55.0,
                    "v_rest": -70.0,
                    "v_reset": -70.0,
                    "tau": 10.0
                },
                {
                    "weights": [
                        2.428483368911226,
                        5.106118844755582,
                        4.16536442892381,
                        5.878606870561403,
                        8.740930763583062,
                        1.8125664807764812
                    ],
                    "internal_weights": [
                        -3.8105724656440976,
                        -2.1290269150502654,
                        -3.452182021554517,
                        0.0,
                        -5.314303131843102
                    ],
                    "v_th": -55.0,
                    "v_rest": -70.0,
                    "v_reset": -70.0,
                    "tau": 10.0
                },
                {
                    "weights": [
                        7.475238488899941,
                        4.9535984979449434,
                        6.565231806689257,
                        7.988236986150699,
                        3.1724319831192687,
                        3.448969718320899
                    ],
                    "internal_weights": [
                        -4.441776630231544,
                        -3.166161098941905,
                        -5.974754076817929,
                        -3.4417973969573774,
                        0.0
                    ],
                    "v_th": -55.0,
                    "v_rest": -70.0,
                    "v_reset": -70.0,
                    "tau": 10.0
                }
            ]
        },
        {
            "neurons": [
                {
                    "weights": [
                        6.589904495601892,
                        5.9077534990996625,
                        9.775014334898628,
                        1.8465405026967068,
                        4.863565669587669
                    ],
                    "internal_weights": [
                        0.0,
                        -4.330939948078047,
                        -4.489719938283176,
                        -4.100399115912611,
                        -3.596182409866736,
                        -3.6464530452294452,
                        -5.475405722673411,
                        -5.5786170272225934
                    ],
                    "v_th": -55.0,
                    "v_rest": -70.0,
                    "v_reset": -70.0,
                    "tau": 10.0
                },
                {
                    "weights": [
                        5.976646119064591,
                        6.521484981791268,
                        5.9762387562460875,
                        5.858189254728313,
                        5.188063115885719
                    ],
                    "internal_weights": [
                        -2.129606209884323,
                        0.0,
                        -1.8133875103306067,
                        -5.351485864055417,
                        -1.3257204200482384,
                        -1.8716503656768344,
                        -4.825191907698805,
                        -2.2029218450982175
                    ],
                    "v_th": -55.0,
                    "v_rest": -70.0,
                    "v_reset": -70.0,
                    "tau": 10.0
                },
                {
                    "weights": [
                        5.682910716174156,
                        1.4359966431736497,
                        3.898891733669649,
                        1.0358870053465081,
                        8.352652483795882
                    ],
                    "internal_weights": [
                        -5.622179984051155,
                        -2.7518747939095696,
                        0.0,
                        -3.9243762301030714,
                        -5.686709206956189,
                        -2.5782519153076353,
                        -3.3511348508642165,
                        -1.9310012854637773
                    ],
                    "v_th": -55.0,
                    "v_rest": -70.0,
                    "v_reset": -70.0,
                    "tau": 10.0
                },
                {
                    "weights": [
                        9.772300551340082,
                        1.448272690936463,
                        6.1061701130150166,
                        9.890246918216334,
                        6.964013596304812
                    ],
                    "internal_weights": [
                        -3.7768366672682006,
                        -2.0534503137933275,
                        -5.99588294688585,
                        0.0,
                        -5.42240830520504,
                        -2.8363894213904213,
                        -1.1178045375025718,
                        -2.65430456517985
                    ],
                    "v_th": -55.0,
                    "v_rest": -70.0,
                    "v_reset": -70.0,
                    "tau": 10.0
                },
                {
                    "weights": [
                        6.291647317385727,
                        4.428410901609344,
                        9.354094777587749,
                        6.964408931743361,
                        5.014512382570676
                    ],
                    "internal_weights": [
                        -2.902198931179819,
                        -4.599799138490475,
                        -5.594120520226524,
                        -3.652848370709707,
                        0.0,
                        -3.3902467112905996,
                        -2.1758337990629113,
                        -4.543991956974491
                    ],
                    "v_th": -55.0,
                    "v_rest": -70.0,
                    "v_reset": -70.0,
                    "tau": 10.0
                },
                {
                    "weights": [
                        2.7964561774032957,
                        6.411027857329709,
                        4.665862936707833,
                        4.13917051198551,
                        1.472205022611003
                    ],
                    "internal_weights": [
                        -3.907100771056969,
                        -3.159715694303526,
                        -5.3536049736974425,
                        -1.0421484063826538,
                        -1.595579025225776,
                        0.0,
                        -4.679674368299188,
                        -3.091836870347909
                    ],
                    "v_th": -55.0,
                    "v_rest": -70.0,
                    "v_reset": -70.0,
                    "tau": 10.0
                },
                {
                    "weights": [
                        4.1475637012485524,
                        1.4023240207543073,
                        7.3390357188464215,
                        7.5194598970350155,
                        3.6785204538951577
                    ],
                    "internal_weights": [
                        -5.42243587770906,
                        -1.4893208731704384,
                        -3.203947707187292,
                        -2.306432338132941,
                        -2.2640481122081475,
                        -4.674434160505756,
                        0.0,
                        -1.2885406591980084
                    ],
                    "v_th": -55.0,
                    "v_rest": -70.0,
                    "v_reset": -70.0,
                    "tau": 10.0
                },
                {
                    "weights": [
                        7.926686202966293,
                        2.819319589917141,
                        2.175552676932897,
                        1.647192536889054,
                        3.2347406313264253
                    ],
                    "internal_weights": [
                        -1.0985368592337812,
                        -2.072269570165137,
                        -2.481498638306096,
                        -1.3682042230975826,
                        -3.7064437556047247,
                        -2.088152242724775,
                        -5.2233195954109135,
                        0.0
                    ],
                    "v_th": -55.0,
                    "v_rest": -70.0,
                    "v_reset": -70.0,
                    "tau": 10.0
                }
            ]
        },
        {
            "neurons": [
                {
                    "weights": [
                        2.0829966826164172,
                        6.438096204364176,
                        4.108561568322916,
                        1.5871304417254977,
                        7.199375571887173,
                        7.811052373227344,
                        6.328845225211591,
                        2.3957956465222336
                    ],
                    "internal_weights": [
                        0.0,
                        -3.031316749826391,
                        -5.140073679073779
                    ],
                    "v_th": -55.0,
                    "v_rest": -70.0,
                    "v_reset": -70.0,
                    "tau": 10.0
                },
                {
                    "weights": [
                        1.6974743681101825,
                        8.66352510285709,
                        9.170031285695217,
                        1.0346244534474898,
                        4.885711739391677,
                        9.749242171677308,
                        5.4013267698424805,
                        2.728019537346441
                    ],
                    "internal_weights": [
                        -5.483559720786298,
                        0.0,
                        -4.377557296994333
                    ],
                    "v_th": -55.0,
                    "v_rest": -70.0,
                    "v_reset": -70.0,
                    "tau": 10.0
                },
                {
                    "weights": [
                        7.578237923201174,
                        2.152617178224024,
                        5.919114342259233,
                        1.296254698786914,
                        5.540587485722493,
                        1.389913982161373,
                        7.541149919401462,
                        4.694389480134412
                    ],
                    "internal_weights": [
                        -5.578690221307769,
                        -4.2825679841543085,
                        0.0
                    ],
                    "v_th": -55.0,
                    "v_rest": -70.0,
                    "v_reset": -70.0,
                    "tau": 10.0
                }
            ]
        }
    ]
}