{
    "time_step_duration_us": 100.0,
    "nr_inputs": 6,
    "nr_outputs": 3,
    "layers": [
        {
            "neurons": [
                {
                    "weights": [
                        4.447504134961626,
                        5.805289066678964,
                        6.672414331365977,
                        5.30556194540744,
                        2.7779690670104813,
                        1.7706291336336568
                    ],
                    "internal_weights": [
                        0.0,
                        -5.6854949646042545,
                        -1.0963333475929185,
                        -4.399685394843546,
                        -5.357576864641246
                    ],
                    "v_th": -55.0,
                    "v_rest": -70.0,
                    "v_reset": -70.0,
                    "tau": 10.0
                },
                {
                    "weights": [
                        5.971928680860931,
                        2.5470948096795865,
                        3.4503286014202144,
                        5.135206733827091,
                        4.408658666993688,
                        3.081666448490634
                    ],
                    "internal_weights": [
                        -3.4433880852795604,
                        0.0,
                        -3.3024080591362166,
                        -5.727226457263015,
                        -5.244949070841387
                    ],
                    "v_th": -55.0,
                    "v_rest": -70.0,
                    "v_reset": -70.0,
                    "tau": 10.0
                },
                {
                    "weights": [
                        5.22819149335518,
                        4.57684925633731,
                        5.783159258289032,
                        4.046336256824526,
                        6.66509065548622,
                        3.871520340979314
                    ],
                    "internal_weights": [
                        -2.3700652392376695,
                        -4.317455088777205,
                        0.0,
                        -4.318235244505817,
                        -4.500511815043142
                    ],
                    "v_th": -55.0,
                    "v_rest": -70.0,
                    "v_reset": -70.0,
                    "tau": 10.0
                },
                {
                    "weights": [
                        5.481906854487286,
                        4.157882669558594,
                        2.804972668619215,
                        6.062678727560621,
                        3.1730228668712774,
                        4.049826780278712
                    ],
                    "internal_weights": [
                        -3.399039800912986,
                        -4.295368210284654,
                        -4.732175749189674,
                        0.0,
                        -1.536913191903114
                    ],
                    "v_th": -55.0,
                    "v_rest": -70.0,
                    "v_reset": -70.0,
                    "tau": 10.0
                },
                {
                    "weights": [
                        1.6535778146244795,
                        2.6449761156442952,
                        6.198961008996474,
                        4.834620301064559,
                        1.9322888116642323,
                        4.23057771897038
                    ],
                    "internal_weights": [
                        -5.497923371248867,
                        -1.1524274047151515,
                        -2.1197783123900655,
                        -1.4839625722186671,
                        0.0
                    ],
                    "v_th": -55.0,
                    "v_rest": -70.0,
                    "v_reset": -70.0,
                    "tau": 10.0
                }
            ]
        },
        {
            "neurons": [
                {
                    "weights": [
                        4.888892472741794,
                        6.390456891502632,
                        6.494537490771016,
                        5.9014326801268595,
                        3.8662515392460186
                    ],
                    "internal_weights": [
                        0.0,
                        -4.948399048673568,
                        -1.4933282210409562,
                        -4.178986285015584,
                        -5.800189429295202,
                        -1.5453706825813516,
                        -5.583191878344409,
                        -5.9595430486314624
                    ],
                    "v_th": -55.0,
                    "v_rest": -70.0,
                    "v_reset": -70.0,
                    "tau": 10.0
                },
                {
                    "weights": [
                        5.287547596763408,
                        5.94092118930741,
                        5.026754549308648,
                        6.3094656333309995,
                        4.008167731959089
                    ],
                    "internal_weights": [
                        -4.2750168110126765,
                        0.0,
                        -2.555183903908723,
                        -1.3069244335467207,
                        -3.5048667530628816,
                        -4.426766744697192,
                        -1.7704539059591413,
                        -2.0321768058992213
                    ],
                    "v_th": -55.0,
                    "v_rest": -70.0,
                    "v_reset": -70.0,
                    "tau": 10.0
                },
                {
                    "weights": [
                        3.98765697892892,
                        5.832008444578929,
                        1.1342349858239738,
                        1.3523284664199071,
                        3.567353634081099
                    ],
                    "internal_weights": [
                        -3.9712292455776352,
                        -5.7072828773308535,
                        0.0,
                        -2.0221987729868522,
                        -2.997527445539216,
                        -2.8330198095860744,
                        -4.587530168460075,
                        -1.1168458203136096
                    ],
                    "v_th": -55.0,
                    "v_rest": -70.0,
                    "v_reset": -70.0,
                    "tau": 10.0
                },
                {
                    "weights": [
                        6.69215566202132,
                        3.396782086103633,
                        1.2273106651848882,
                        6.402652701377568,
                        5.340987617072594
                    ],
                    "internal_weights": [
                        -5.502081060808964,
                        -3.266677520776757,
                        -1.5711464432405826,
                        0.0,
                        -1.8885366210075363,
                        -4.625208306523812,
                        -2.9711352029196343,
                        -1.694951146618128
                    ],
                    "v_th": -55.0,
                    "v_rest": -70.0,
                    "v_reset": -70.0,
                    "tau": 10.0
                },
                {
                    "weights": [
                        3.695007714423083,
                        5.419607767026887,
                        2.0643891928503946,
                        3.3860584235909936,
                        2.656349554357428
                    ],
                    "internal_weights": [
                        -3.1919815399015157,
                        -4.949992386992786,
                        -4.73010075190907,
                        -3.76363146559849,
                        0.0,
                        -2.551316628381893,
                        -1.9974089274258686,
                        -5.770016690597016
                    ],
                    "v_th": -55.0,
                    "v_rest": -70.0,
                    "v_reset": -70.0,
                    "tau": 10.0
                },
                {
                    "weights": [
                        5.795544168556001,
                        6.29113429021471,
                        5.422984174294566,
                        2.969293546922108,
                        3.177746855822158
                    ],
                    "internal_weights": [
                        -3.771143882276078,
                        -2.2171925640129313,
                        -1.475610710384542,
                        -1.9673966824987517,
                        -2.60859457088449,
                        0.0,
                        -5.655192645836229,
                        -4.352127198358615
                    ],
                    "v_th": -55.0,
                    "v_rest": -70.0,
                    "v_reset": -70.0,
                    "tau": 10.0
                },
                {
                    "weights": [
                        2.601473307942832,
                        4.595749431731742,
                        1.7647286233278765,
                        1.7998468602288094,
                        1.2184934900369053
                    ],
                    "internal_weights": [
                        -3.340094695662793,
                        -1.7217524039786678,
                        -1.6723852280605227,
                        -5.211652191613757,
                        -4.364879932496004,
                        -1.9727375274840435,
                        0.0,
                        -2.871450629842108
                    ],
                    "v_th": -55.0,
                    "v_rest": -70.0,
                    "v_reset": -70.0,
                    "tau": 10.0
                },
                {
                    "weights": [
                        4.348980804982953,
                        2.894742846428864,
                        5.34114962894646,
                        6.633078464478796,
                        5.539283846337297
                    ],
                    "internal_weights": [
                        -3.1088561287967895,
                        -3.503357453046847,
                        -1.076030773419852,
                        -1.9484491493026086,
                        -5.321359400430723,
                        -2.0397621855618646,
                        -3.5777602025327657,
                        0.0
                    ],
                    "v_th": -55.0,
                    "v_rest": -70.0,
                    "v_reset": -70.0,
                    "tau": 10.0
                }
            ]
        },
        {
            "neurons": [
                {
                    "weights": [
                        1.7942839671975703,
                        1.5087134352111295,
                        5.25512397085233,
                        5.639289732206889,
                        4.822543081398577,
                        3.6959332894567916,
                        5.9720249989282355,
                        1.767032498272658
                    ],
                    "internal_weights": [
                        0.0,
                        -5.695718836694058,
                        -2.1711569013305683
                    ],
                    "v_th": -55.0,
                    "v_rest": -70.0,
                    "v_reset": -70.0,
                    "tau": 10.0
                },
                {
                    "weights": [
                        4.886279779930392,
                        3.1896342817875105,
                        3.410216293835259,
                        1.896061703421591,
                        4.529809337443477,
                        6.016075689625819,
                        1.1692120997295783,
                        4.95106122413967
                    ],
                    "internal_weights": [
                        -2.6328215805343644,
                        0.0,
                        -4.655484836830385
                    ],
                    "v_th": -55.0,
                    "v_rest": -70.0,
                    "v_reset": -70.0,
                    "tau": 10.0
                },
                {
                    "weights": [
                        6.4545513406812685,
                        5.082021875519232,
                        1.9191895114555952,
                        4.414886258246016,
                        6.330059240472273,
                        2.4380472164595655,
                        5.736047002747326,
                        5.248671631860366
                    ],
                    "internal_weights": [
                        -5.090538767683236,
                        -5.379320042656271,
                        0.0
                    ],
                    "v_th": -55.0,
                    "v_rest": -70.0,
                    "v_reset": -70.0,
                    "tau": 10.0
                }
            ]
        }
    ]
}